digraph Tree {
node [shape=box] ;
0 [label="X[12] <= 0.1408\ngini = 0.5\nsamples = 2534\nvalue = [1273, 1261]"] ;
1 [label="X[5] <= 0.0713\ngini = 0.0929\nsamples = 1270\nvalue = [62, 1208]"] ;
0 -> 1 [labeldistance=2.5, labelangle=45, headlabel="True"] ;
2 [label="X[9] <= 0.189\ngini = 0.462\nsamples = 58\nvalue = [37, 21]"] ;
1 -> 2 ;
3 [label="X[1] <= 0.0434\ngini = 0.2449\nsamples = 14\nvalue = [2, 12]"] ;
2 -> 3 ;
4 [label="gini = 0.0\nsamples = 2\nvalue = [2, 0]"] ;
3 -> 4 ;
5 [label="gini = 0.0\nsamples = 12\nvalue = [0, 12]"] ;
3 -> 5 ;
6 [label="X[6] <= 1.8187\ngini = 0.3254\nsamples = 44\nvalue = [35, 9]"] ;
2 -> 6 ;
7 [label="X[19] <= 0.1461\ngini = 0.4861\nsamples = 12\nvalue = [5, 7]"] ;
6 -> 7 ;
8 [label="X[8] <= 0.8955\ngini = 0.2188\nsamples = 8\nvalue = [1, 7]"] ;
7 -> 8 ;
9 [label="gini = 0.0\nsamples = 1\nvalue = [1, 0]"] ;
8 -> 9 ;
10 [label="gini = 0.0\nsamples = 7\nvalue = [0, 7]"] ;
8 -> 10 ;
11 [label="gini = 0.0\nsamples = 4\nvalue = [4, 0]"] ;
7 -> 11 ;
12 [label="X[8] <= 0.8347\ngini = 0.1172\nsamples = 32\nvalue = [30, 2]"] ;
6 -> 12 ;
13 [label="gini = 0.0\nsamples = 1\nvalue = [0, 1]"] ;
12 -> 13 ;
14 [label="X[19] <= 0.0768\ngini = 0.0624\nsamples = 31\nvalue = [30, 1]"] ;
12 -> 14 ;
15 [label="X[0] <= 0.1657\ngini = 0.375\nsamples = 4\nvalue = [3, 1]"] ;
14 -> 15 ;
16 [label="gini = 0.0\nsamples = 3\nvalue = [3, 0]"] ;
15 -> 16 ;
17 [label="gini = 0.0\nsamples = 1\nvalue = [0, 1]"] ;
15 -> 17 ;
18 [label="gini = 0.0\nsamples = 27\nvalue = [27, 0]"] ;
14 -> 18 ;
19 [label="X[12] <= 0.1341\ngini = 0.0404\nsamples = 1212\nvalue = [25, 1187]"] ;
1 -> 19 ;
20 [label="X[13] <= 0.0104\ngini = 0.0109\nsamples = 1093\nvalue = [6, 1087]"] ;
19 -> 20 ;
21 [label="gini = 0.0\nsamples = 1\nvalue = [1, 0]"] ;
20 -> 21 ;
22 [label="X[13] <= 0.0155\ngini = 0.0091\nsamples = 1092\nvalue = [5, 1087]"] ;
20 -> 22 ;
23 [label="X[5] <= 0.0953\ngini = 0.2449\nsamples = 14\nvalue = [2, 12]"] ;
22 -> 23 ;
24 [label="gini = 0.0\nsamples = 2\nvalue = [2, 0]"] ;
23 -> 24 ;
25 [label="gini = 0.0\nsamples = 12\nvalue = [0, 12]"] ;
23 -> 25 ;
26 [label="X[2] <= 0.0594\ngini = 0.0056\nsamples = 1078\nvalue = [3, 1075]"] ;
22 -> 26 ;
27 [label="X[6] <= 4.553\ngini = 0.1975\nsamples = 9\nvalue = [1, 8]"] ;
26 -> 27 ;
28 [label="gini = 0.0\nsamples = 1\nvalue = [1, 0]"] ;
27 -> 28 ;
29 [label="gini = 0.0\nsamples = 8\nvalue = [0, 8]"] ;
27 -> 29 ;
30 [label="X[9] <= 0.7787\ngini = 0.0037\nsamples = 1069\nvalue = [2, 1067]"] ;
26 -> 30 ;
31 [label="X[5] <= 0.0789\ngini = 0.0019\nsamples = 1052\nvalue = [1, 1051]"] ;
30 -> 31 ;
32 [label="X[18] <= 0.3984\ngini = 0.095\nsamples = 20\nvalue = [1, 19]"] ;
31 -> 32 ;
33 [label="X[16] <= 0.0312\ngini = 0.5\nsamples = 2\nvalue = [1, 1]"] ;
32 -> 33 ;
34 [label="gini = 0.0\nsamples = 1\nvalue = [0, 1]"] ;
33 -> 34 ;
35 [label="gini = 0.0\nsamples = 1\nvalue = [1, 0]"] ;
33 -> 35 ;
36 [label="gini = 0.0\nsamples = 18\nvalue = [0, 18]"] ;
32 -> 36 ;
37 [label="gini = 0.0\nsamples = 1032\nvalue = [0, 1032]"] ;
31 -> 37 ;
38 [label="X[12] <= 0.13\ngini = 0.1107\nsamples = 17\nvalue = [1, 16]"] ;
30 -> 38 ;
39 [label="gini = 0.0\nsamples = 16\nvalue = [0, 16]"] ;
38 -> 39 ;
40 [label="gini = 0.0\nsamples = 1\nvalue = [1, 0]"] ;
38 -> 40 ;
41 [label="X[13] <= 0.0389\ngini = 0.2683\nsamples = 119\nvalue = [19, 100]"] ;
19 -> 41 ;
42 [label="X[5] <= 0.0984\ngini = 0.4352\nsamples = 25\nvalue = [17, 8]"] ;
41 -> 42 ;
43 [label="gini = 0.0\nsamples = 10\nvalue = [10, 0]"] ;
42 -> 43 ;
44 [label="X[17] <= 5.4102\ngini = 0.4978\nsamples = 15\nvalue = [7, 8]"] ;
42 -> 44 ;
45 [label="X[14] <= 0.2476\ngini = 0.4628\nsamples = 11\nvalue = [7, 4]"] ;
44 -> 45 ;
46 [label="gini = 0.0\nsamples = 2\nvalue = [0, 2]"] ;
45 -> 46 ;
47 [label="X[1] <= 0.0801\ngini = 0.3457\nsamples = 9\nvalue = [7, 2]"] ;
45 -> 47 ;
48 [label="gini = 0.0\nsamples = 6\nvalue = [6, 0]"] ;
47 -> 48 ;
49 [label="X[19] <= 0.2565\ngini = 0.4444\nsamples = 3\nvalue = [1, 2]"] ;
47 -> 49 ;
50 [label="gini = 0.0\nsamples = 2\nvalue = [0, 2]"] ;
49 -> 50 ;
51 [label="gini = 0.0\nsamples = 1\nvalue = [1, 0]"] ;
49 -> 51 ;
52 [label="gini = 0.0\nsamples = 4\nvalue = [0, 4]"] ;
44 -> 52 ;
53 [label="X[16] <= 0.1987\ngini = 0.0416\nsamples = 94\nvalue = [2, 92]"] ;
41 -> 53 ;
54 [label="X[1] <= 0.0511\ngini = 0.0213\nsamples = 93\nvalue = [1, 92]"] ;
53 -> 54 ;
55 [label="X[9] <= 0.2528\ngini = 0.5\nsamples = 2\nvalue = [1, 1]"] ;
54 -> 55 ;
56 [label="gini = 0.0\nsamples = 1\nvalue = [1, 0]"] ;
55 -> 56 ;
57 [label="gini = 0.0\nsamples = 1\nvalue = [0, 1]"] ;
55 -> 57 ;
58 [label="gini = 0.0\nsamples = 91\nvalue = [0, 91]"] ;
54 -> 58 ;
59 [label="gini = 0.0\nsamples = 1\nvalue = [1, 0]"] ;
53 -> 59 ;
60 [label="X[12] <= 0.1476\ngini = 0.0803\nsamples = 1264\nvalue = [1211, 53]"] ;
0 -> 60 [labeldistance=2.5, labelangle=-45, headlabel="False"] ;
61 [label="X[5] <= 0.0713\ngini = 0.425\nsamples = 111\nvalue = [77, 34]"] ;
60 -> 61 ;
62 [label="X[19] <= 0.0295\ngini = 0.0596\nsamples = 65\nvalue = [63, 2]"] ;
61 -> 62 ;
63 [label="gini = 0.0\nsamples = 1\nvalue = [0, 1]"] ;
62 -> 63 ;
64 [label="X[13] <= 0.05\ngini = 0.0308\nsamples = 64\nvalue = [63, 1]"] ;
62 -> 64 ;
65 [label="gini = 0.0\nsamples = 62\nvalue = [62, 0]"] ;
64 -> 65 ;
66 [label="X[19] <= 0.1417\ngini = 0.5\nsamples = 2\nvalue = [1, 1]"] ;
64 -> 66 ;
67 [label="gini = 0.0\nsamples = 1\nvalue = [1, 0]"] ;
66 -> 67 ;
68 [label="gini = 0.0\nsamples = 1\nvalue = [0, 1]"] ;
66 -> 68 ;
69 [label="X[9] <= 0.5379\ngini = 0.4234\nsamples = 46\nvalue = [14, 32]"] ;
61 -> 69 ;
70 [label="X[1] <= 0.0532\ngini = 0.1207\nsamples = 31\nvalue = [2, 29]"] ;
69 -> 70 ;
71 [label="X[1] <= 0.0489\ngini = 0.4444\nsamples = 3\nvalue = [2, 1]"] ;
70 -> 71 ;
72 [label="gini = 0.0\nsamples = 1\nvalue = [0, 1]"] ;
71 -> 72 ;
73 [label="gini = 0.0\nsamples = 2\nvalue = [2, 0]"] ;
71 -> 73 ;
74 [label="gini = 0.0\nsamples = 28\nvalue = [0, 28]"] ;
70 -> 74 ;
75 [label="X[18] <= 3.9526\ngini = 0.32\nsamples = 15\nvalue = [12, 3]"] ;
69 -> 75 ;
76 [label="gini = 0.0\nsamples = 9\nvalue = [9, 0]"] ;
75 -> 76 ;
77 [label="X[17] <= 7.8867\ngini = 0.5\nsamples = 6\nvalue = [3, 3]"] ;
75 -> 77 ;
78 [label="gini = 0.0\nsamples = 3\nvalue = [0, 3]"] ;
77 -> 78 ;
79 [label="gini = 0.0\nsamples = 3\nvalue = [3, 0]"] ;
77 -> 79 ;
80 [label="X[11] <= 0.0783\ngini = 0.0324\nsamples = 1153\nvalue = [1134, 19]"] ;
60 -> 80 ;
81 [label="gini = 0.0\nsamples = 1\nvalue = [0, 1]"] ;
80 -> 81 ;
82 [label="X[5] <= 0.0768\ngini = 0.0308\nsamples = 1152\nvalue = [1134, 18]"] ;
80 -> 82 ;
83 [label="X[9] <= 0.5503\ngini = 0.0063\nsamples = 950\nvalue = [947, 3]"] ;
82 -> 83 ;
84 [label="X[10] <= 0.025\ngini = 0.0022\nsamples = 924\nvalue = [923, 1]"] ;
83 -> 84 ;
85 [label="X[15] <= 0.8515\ngini = 0.1327\nsamples = 14\nvalue = [13, 1]"] ;
84 -> 85 ;
86 [label="gini = 0.0\nsamples = 13\nvalue = [13, 0]"] ;
85 -> 86 ;
87 [label="gini = 0.0\nsamples = 1\nvalue = [0, 1]"] ;
85 -> 87 ;
88 [label="gini = 0.0\nsamples = 910\nvalue = [910, 0]"] ;
84 -> 88 ;
89 [label="X[9] <= 0.5535\ngini = 0.142\nsamples = 26\nvalue = [24, 2]"] ;
83 -> 89 ;
90 [label="X[13] <= 0.0372\ngini = 0.4444\nsamples = 3\nvalue = [1, 2]"] ;
89 -> 90 ;
91 [label="gini = 0.0\nsamples = 2\nvalue = [0, 2]"] ;
90 -> 91 ;
92 [label="gini = 0.0\nsamples = 1\nvalue = [1, 0]"] ;
90 -> 92 ;
93 [label="gini = 0.0\nsamples = 23\nvalue = [23, 0]"] ;
89 -> 93 ;
94 [label="X[18] <= 4.9805\ngini = 0.1375\nsamples = 202\nvalue = [187, 15]"] ;
82 -> 94 ;
95 [label="X[12] <= 0.1486\ngini = 0.0137\nsamples = 145\nvalue = [144, 1]"] ;
94 -> 95 ;
96 [label="X[15] <= 0.2464\ngini = 0.375\nsamples = 4\nvalue = [3, 1]"] ;
95 -> 96 ;
97 [label="gini = 0.0\nsamples = 3\nvalue = [3, 0]"] ;
96 -> 97 ;
98 [label="gini = 0.0\nsamples = 1\nvalue = [0, 1]"] ;
96 -> 98 ;
99 [label="gini = 0.0\nsamples = 141\nvalue = [141, 0]"] ;
95 -> 99 ;
100 [label="X[6] <= 2.2207\ngini = 0.3706\nsamples = 57\nvalue = [43, 14]"] ;
94 -> 100 ;
101 [label="X[10] <= 0.0116\ngini = 0.1928\nsamples = 37\nvalue = [33, 4]"] ;
100 -> 101 ;
102 [label="X[18] <= 5.8477\ngini = 0.5\nsamples = 4\nvalue = [2, 2]"] ;
101 -> 102 ;
103 [label="gini = 0.0\nsamples = 2\nvalue = [2, 0]"] ;
102 -> 103 ;
104 [label="gini = 0.0\nsamples = 2\nvalue = [0, 2]"] ;
102 -> 104 ;
105 [label="X[12] <= 0.1498\ngini = 0.1139\nsamples = 33\nvalue = [31, 2]"] ;
101 -> 105 ;
106 [label="X[12] <= 0.1492\ngini = 0.4444\nsamples = 3\nvalue = [2, 1]"] ;
105 -> 106 ;
107 [label="gini = 0.0\nsamples = 2\nvalue = [2, 0]"] ;
106 -> 107 ;
108 [label="gini = 0.0\nsamples = 1\nvalue = [0, 1]"] ;
106 -> 108 ;
109 [label="X[14] <= 0.2704\ngini = 0.0644\nsamples = 30\nvalue = [29, 1]"] ;
105 -> 109 ;
110 [label="X[2] <= 0.1481\ngini = 0.375\nsamples = 4\nvalue = [3, 1]"] ;
109 -> 110 ;
111 [label="gini = 0.0\nsamples = 3\nvalue = [3, 0]"] ;
110 -> 111 ;
112 [label="gini = 0.0\nsamples = 1\nvalue = [0, 1]"] ;
110 -> 112 ;
113 [label="gini = 0.0\nsamples = 26\nvalue = [26, 0]"] ;
109 -> 113 ;
114 [label="X[19] <= 0.11\ngini = 0.5\nsamples = 20\nvalue = [10, 10]"] ;
100 -> 114 ;
115 [label="gini = 0.0\nsamples = 6\nvalue = [6, 0]"] ;
114 -> 115 ;
116 [label="X[6] <= 3.0083\ngini = 0.4082\nsamples = 14\nvalue = [4, 10]"] ;
114 -> 116 ;
117 [label="X[16] <= 0.0312\ngini = 0.18\nsamples = 10\nvalue = [1, 9]"] ;
116 -> 117 ;
118 [label="gini = 0.0\nsamples = 8\nvalue = [0, 8]"] ;
117 -> 118 ;
119 [label="X[1] <= 0.0635\ngini = 0.5\nsamples = 2\nvalue = [1, 1]"] ;
117 -> 119 ;
120 [label="gini = 0.0\nsamples = 1\nvalue = [0, 1]"] ;
119 -> 120 ;
121 [label="gini = 0.0\nsamples = 1\nvalue = [1, 0]"] ;
119 -> 121 ;
122 [label="X[4] <= 0.1728\ngini = 0.375\nsamples = 4\nvalue = [3, 1]"] ;
116 -> 122 ;
123 [label="gini = 0.0\nsamples = 1\nvalue = [0, 1]"] ;
122 -> 123 ;
124 [label="gini = 0.0\nsamples = 3\nvalue = [3, 0]"] ;
122 -> 124 ;
}